-1.0701004,-16.556696,-14.434534,19.524584,-33.84336,-9.503966,-25.395405,11.815232,-11.196305,-25.231928,22.868021,-11.230418,-9.719649,14.18987,-14.050002,-11.868142,-10.447534,6.4186473,4.4100804,-19.590464
-17.17142,15.884213,-2.3134203,3.12744,-19.43846,-11.489643,-5.3923173,-16.587517,-16.38934,-11.488588,-33.124306,-28.294176,-17.809814,-22.95108,21.684246,11.975213,-8.782993,-7.581429,-39.145515,-9.376144
-16.16248,-3.455593,-11.414406,-32.26409,24.936749,-28.707047,-4.824128,16.83512,-17.043108,19.40559,-20.839985,-15.845244,-11.979057,-32.044865,18.530006,-22.616478,4.5526156,-12.255359,22.64432,-22.264217
-2.1641734,-4.392545,5.722715,7.421697,-8.562897,-1.8350118,-17.564318,-17.270674,-8.88213,11.766925,-13.30336,-13.867924,-19.456354,-4.787089,-20.678888,-6.409492,-1.5816993,-11.864061,5.183636,-7.335137
-3.3466775,8.950417,10.785716,-22.452015,-26.275946,-22.628632,3.4314542,5.212654,-12.855591,-3.1882396,-20.199074,10.544911,-25.916122,31.137087,-22.182375,-31.88802,-18.81677,-26.218225,-20.918924,-16.420757
18.958326,-5.965847,2.556056,-18.235607,3.3465736,11.831166,-8.226699,-18.897165,-9.00179,-11.67671,-10.081561,-19.49706,-3.348752,-11.238397,-9.561654,-2.9864795,-8.715093,19.271057,1.9057419,-19.813808
-13.745761,-5.482711,-14.556016,-24.332424,4.3624544,18.719458,7.1391053,-11.286864,-4.7669673,-2.0654182,-18.070406,-25.896652,25.863468,-16.601624,28.107157,25.217514,-20.840055,4.545257,-28.779772,-19.923622
-21.62788,27.20631,-15.866086,8.240683,-11.054445,-12.766786,-12.189358,-13.371194,-9.65786,10.96748,1.8844411,27.407734,11.334921,-25.081308,-23.914118,7.127541,-12.00818,1.3879809,-19.197197,-32.984135
-30.055763,-1.008399,-5.0116243,-7.5823045,25.632221,-32.19081,-10.061456,21.929106,-0.42779577,-4.124689,8.087557,-1.0165169,5.234432,-8.408698,-27.96635,-20.783052,-2.1483548,-21.08497,-32.513718,16.042105
-5.441557,-1.7056593,3.0345964,0.6077847,-2.1774254,15.987165,-11.995753,-17.652569,-2.9041214,-3.6057355,26.698587,-14.134081,-17.575895,-2.7105534,-17.669025,-20.829723,33.064396,-10.735773,-5.829053,-7.173763
4.4875827,-0.33003226,1.8944815,3.7998178,-7.5750427,-11.300012,-15.7538185,12.631554,19.584183,-22.190952,-11.884871,-15.22451,-20.124863,-27.402925,-14.186032,34.89094,-5.285114,1.7762895,-17.710667,-16.687244
-8.436446,-25.393503,-10.644478,7.5366983,-21.39406,-18.881638,-17.610426,-15.040009,-26.165823,8.151757,-2.743566,-13.185641,9.983168,10.578961,-22.937136,-2.1100023,-10.037903,-25.00267,11.272365,-15.516214
-8.229939,-5.6854424,-20.63725,-25.963476,-29.952354,-17.20741,-12.1566925,-5.9778214,-13.560309,-13.898393,-0.34474182,-21.025297,1.2672695,-3.6981204,9.261083,7.4680266,-6.9933815,3.2727804,-15.931897,-3.8667755
-0.4428129,6.8463974,1.0110462,-26.61819,-6.231065,3.8172858,-2.6291633,-21.51416,-16.596014,2.4530227,12.049214,-22.067553,-23.184656,-6.0655937,-21.64393,-7.299237,-6.1673236,2.2029314,1.1759956,5.972958
-10.138357,-7.3100443,11.339722,-12.17939,36.047653,-30.384352,-24.878149,-29.828718,-4.004868,-21.81567,-35.632664,-14.853268,-4.3047147,16.953354,-17.082756,6.806293,-19.199799,-9.591288,-17.331812,-20.842173
-9.771452,3.8245203,5.5175786,2.0073674,-5.937252,1.0000943,-12.037555,-0.64857626,-16.49862,-15.353969,-14.614689,-8.483297,-2.2386153,-29.927626,-27.335596,-8.18536,-4.8163447,16.3969,-21.403515,-10.340847
-2.5644772,2.9652853,-9.013246,1.1513292,-4.7465053,17.90703,-2.177249,-4.254364,-10.244265,-11.639274,-20.638096,-26.87465,-24.758183,-10.159788,15.965586,3.3100405,-24.138765,-1.0294554,-14.64997,-12.443517
-8.661917,0.83797145,-3.9105148,0.17468815,-1.2730894,12.963412,0.17197807,-6.9626284,-18.611013,-30.523872,-5.4003406,-23.38484,-15.896353,-21.643078,-20.965647,-31.36844,-23.819624,-11.39479,-37.109306,-19.084806
5.2644553,-4.806301,-2.8262675,3.3612976,-17.408754,-12.357439,-4.300305,27.513992,2.4662714,-11.983267,-13.474555,-7.0066133,-9.60047,-19.323595,-19.926954,-7.461074,-7.6840544,-6.541271,-0.14389992,-27.133938
-12.107277,-3.344471,-8.296297,-8.9579115,-21.38965,-2.320217,-8.377673,28.14677,-2.0712218,5.020524,-15.118187,-2.4037085,23.615757,-0.4484414,-8.472062,-19.086456,8.219456,-11.639669,-25.73326,0.49079657
-17.932692,-4.4433327,-13.927996,-5.055679,-10.1058,-23.410608,-1.2577689,-12.37717,16.866728,-24.127222,-21.343622,-4.138322,14.445123,10.842329,-5.072274,-16.731535,15.907344,-19.900972,-16.639593,11.344932
-12.818601,-6.2566586,2.0892339,-17.669712,16.562704,-19.401024,-8.307552,-25.120985,-6.77794,-24.6821,-16.868464,20.945354,-14.433811,-22.933886,-5.356046,-3.146046,-26.463627,20.679413,27.197924,5.014573
-15.955382,-12.711154,8.993155,-10.103542,-10.828808,-19.325876,8.034741,-13.955083,9.179763,-9.138704,-8.20904,-12.728539,-13.932832,-20.71177,9.408513,-4.205745,23.560831,-13.827104,8.464293,-11.9072895
-5.6597986,-13.689214,-26.516222,0.48787218,-14.2736225,-22.820059,16.529427,-0.61597073,-27.661396,28.360813,5.9591303,-32.12383,-5.8645506,-24.83444,6.49308,-20.02382,-10.272451,17.232212,-11.034493,-18.473211
-21.107494,2.446031,-0.9929648,0.9312486,-17.905289,-9.300875,-2.5582948,-7.921454,12.435416,10.430991,-24.969595,-13.569274,-17.861105,-12.109284,-16.851799,-3.2689881,-12.406368,-7.655001,10.59798,-11.000661
21.195774,-5.527302,-11.731843,-8.084447,-5.7746587,-15.593672,12.970285,-5.890626,-12.653367,-4.194189,1.7219574,-17.951006,-24.862612,-14.140332,-4.823246,-32.138702,-12.549085,-27.192202,8.96867,6.8642526
-9.03344,-6.7978244,-11.798887,-3.5327077,4.897601,1.2559038,-0.9973656,19.558168,-2.2469342,-17.90936,-19.065907,-8.870398,-4.2916546,-4.2193193,-9.232396,-5.7746506,5.3255963,5.001036,-17.547821,-5.5421844
19.6563,-7.658206,12.221436,13.421788,-13.041613,-10.465808,-33.346725,-3.253109,-6.5461593,-2.9219775,-15.252074,-0.74806005,-0.46511507,-13.953507,-9.788941,11.111249,-6.073527,-18.78054,-14.463321,-12.531505
-10.801951,-5.878986,-13.596385,0.67686343,-11.627783,-25.133688,9.860704,-3.6483645,24.420254,-30.049091,0.2968861,-21.996265,-16.584883,-0.70574087,1.5353978,-1.4126238,-19.751728,-15.779314,18.849726,-7.8390937
15.630311,-4.8074884,-26.703362,-20.856936,-22.754086,-17.405258,-16.515137,-14.815107,7.105138,9.925792,16.349037,10.109271,-14.64947,-25.29731,5.176363,8.104731,-9.733563,3.8093257,-15.786404,-8.248622
-4.201084,15.392357,-4.8189135,-5.6542625,-12.371393,16.369352,-30.267967,-23.575254,-21.425022,-13.192485,-14.723263,-11.943499,-0.013820196,-21.064991,-13.56073,-16.64029,-28.27913,-20.435625,8.041699,-21.53603
-24.765678,-6.0073,18.656036,-0.82318383,-19.002068,10.53274,-22.086155,-7.26617,11.680569,-19.732533,-31.815456,-13.893262,-16.874712,-0.47273153,-16.75234,-22.885927,-9.204282,18.040228,-15.622779,-14.635006
1.594321,1.5494066,-21.288935,-29.69524,-21.796919,-7.4656305,-1.5067906,7.595197,-10.156731,-21.654467,-25.173445,-18.075972,20.702536,-16.94786,-18.0807,-9.82325,28.596043,-5.7800655,-9.954748,-10.107927
-27.674156,-9.740322,-7.6434665,18.1973,4.207658,-15.749734,-7.747606,-33.114105,-24.773201,-9.852537,-12.730155,-16.997915,8.317937,-31.854061,-29.828167,-16.038324,-27.179918,-14.062334,-30.290068,4.6153
-0.95119387,-15.893555,-12.666035,-12.886368,-11.446383,33.660072,-15.489787,-14.6436205,19.0284,37.67703,-8.759614,-8.005593,-28.433535,13.759206,8.446493,-3.7845066,-10.61093,-9.219501,-23.898903,16.108263
-11.897661,-3.2458224,-0.64900255,-9.64086,4.4630613,-21.544312,-4.672651,-15.665185,-7.269081,3.8167129,36.843456,-3.775072,-16.90202,-4.2340784,6.4077363,-6.144452,-26.474762,0.7058216,-32.81835,-22.448637
3.9979653,-18.4932,-9.029511,-6.862806,-15.94857,10.561486,-9.711677,8.393886,4.0899916,-13.833136,-9.838572,23.747303,8.568155,5.6053815,17.952553,1.6603489,-20.530188,-10.036502,2.5731215,2.465432
17.099546,-11.118141,2.6717381,-23.884476,-33.845078,-3.961905,-4.39637,4.3834147,-24.539267,-14.8189745,-24.3404,-28.168537,-10.566343,-23.224062,-25.949455,25.225296,-22.263002,0.22919025,-24.807709,26.199429
9.232312,-11.202499,29.634018,-12.290448,-28.452868,8.453866,-6.40046,-0.85065246,-17.740765,-6.0763083,-14.856364,0.31022862,-5.3680954,-18.022964,15.873891,-16.550259,-0.76105326,-26.83058,-30.387442,-14.101022
-8.658468,4.9691052,5.6883807,-8.187521,6.852214,-31.147545,-24.110113,-5.4043584,0.5432327,-1.952574,4.1264935,-10.540873,-12.714745,-5.21562,-13.168119,-10.848867,6.8582177,0.37216753,22.158806,24.543383
-17.715855,0.79311985,1.6122171,-17.800137,-2.4602377,-13.889563,15.91209,-5.615772,-21.560608,-23.25774,11.676119,-6.5012054,-12.183326,-15.238415,-0.43005356,13.491678,-0.22533299,-12.135801,-18.072037,-1.8402388
7.0894284,-25.50255,-13.632883,12.24952,0.84608316,-3.7393715,-5.942671,-9.600399,-19.333275,-16.60028,-18.703423,17.644173,-21.998959,-5.8998322,-18.668356,-23.87037,21.747993,-22.526108,-4.106493,3.7907426
-17.13007,-23.94541,12.024557,-2.017506,-1.0971849,-9.689928,-10.29005,-17.16037,-4.2409153,10.3867655,-7.0083094,-11.3946705,-21.40234,-9.065898,-1.1336733,-6.5218115,-7.3307433,8.441076,22.459602,26.632177
-17.419947,7.465544,-6.166407,3.626184,-13.302148,-17.376593,-13.24867,-20.459028,-16.824327,-24.634691,2.2083874,3.5054922,-28.649572,-0.81543154,-3.2475076,-9.794626,6.820084,-7.9473133,-34.006317,-17.711277
-11.930295,4.306193,-5.4341407,-0.99223524,-9.36553,-15.889481,8.978519,-6.808496,-8.529514,0.14730519,-21.079082,-22.045513,-2.936627,-13.568676,-16.458914,-0.64100003,-20.6145,-1.1674563,-19.531513,-11.677647
-8.275756,-13.333763,11.790214,-4.8145366,-0.6603596,-5.2464037,-15.160841,-11.953017,-15.767272,-6.864461,-0.8122166,-17.641943,-2.8980596,-30.247,-13.69072,-9.078825,0.92760736,-19.634491,-4.9330482,3.1479068
-0.7376744,3.9938502,-6.788606,-5.6347375,13.68207,-0.27327847,13.843228,-12.990201,-5.497835,-27.420542,-22.835882,20.662022,-16.579695,-3.0301046,-16.028229,-25.572659,1.5067616,-9.358561,-5.0070195,-20.002548
0.45922318,10.744792,-20.261438,-31.137451,-40.583923,-21.783527,-17.241968,-22.077475,-22.243965,-12.194679,6.078154,4.578696,-36.709503,16.56337,22.133902,5.4685774,13.574046,-1.8827237,11.401714,19.657185
33.506092,-13.142594,6.515057,0.03119986,-13.347599,-18.641203,-28.393087,-12.996416,-0.50276005,-9.483487,-0.66782784,-4.980285,-4.1113424,-13.700255,9.5916195,-16.51875,-1.676358,5.079385,-15.886029,-3.143213
12.484269,-13.376139,4.3216877,1.9580009,-14.279639,-15.896997,-14.628368,-4.307446,-10.193569,2.0670254,-12.737464,22.293777,-8.404301,-11.282243,-8.742362,-0.46778527,-20.894821,-11.495274,-15.099786,-3.8095791